<?xml version="1.0"?>
<opencv_storage>
<cascade>
  <stageType>BOOST</stageType>
  <featureType>HAAR</featureType>
  <height>12</height>
  <width>12</width>
  <stageParams>
    <boostType>GAB</boostType>
    <minHitRate>9.9500000476837158e-001</minHitRate>
    <maxFalseAlarm>5.0000000000000000e-001</maxFalseAlarm>
    <weightTrimRate>9.4999999999999996e-001</weightTrimRate>
    <maxDepth>1</maxDepth>
    <maxWeakCount>100</maxWeakCount></stageParams>
  <featureParams>
    <maxCatCount>0</maxCatCount>
    <featSize>1</featSize>
    <mode>BASIC</mode></featureParams>
  <stageNum>3</stageNum>
  <stages>
    <!-- stage 0 -->
    <_>
      <maxWeakCount>2</maxWeakCount>
      <stageThreshold>-4.1155878454446793e-002</stageThreshold>
      <weakClassifiers>
        <_>
          <internalNodes>
            0 -1 1 -7.7475607395172119e-002</internalNodes>
          <leafValues>
            9.7308784723281860e-001 -9.7965115308761597e-001</leafValues></_>
        <_>
          <internalNodes>
            0 -1 0 6.3962392508983612e-002</internalNodes>
          <leafValues>
            -9.9477726221084595e-001 9.3849527835845947e-001</leafValues></_></weakClassifiers></_>
    <!-- stage 1 -->
    <_>
      <maxWeakCount>1</maxWeakCount>
      <stageThreshold>9.5530724525451660e-001</stageThreshold>
      <weakClassifiers>
        <_>
          <internalNodes>
            0 -1 2 7.6367288827896118e-002</internalNodes>
          <leafValues>
            -1. 9.5530724525451660e-001</leafValues></_></weakClassifiers></_>
    <!-- stage 2 -->
    <_>
      <maxWeakCount>1</maxWeakCount>
      <stageThreshold>9.6624469757080078e-001</stageThreshold>
      <weakClassifiers>
        <_>
          <internalNodes>
            0 -1 3 2.9972041025757790e-002</internalNodes>
          <leafValues>
            -9.9410027265548706e-001 9.6624469757080078e-001</leafValues></_></weakClassifiers></_></stages>
  <features>
    <_>
      <rects>
        <_>
          6 1 1 9 -1.</_>
        <_>
          6 4 1 3 3.</_></rects>
      <tilted>0</tilted></_>
    <_>
      <rects>
        <_>
          6 7 6 4 -1.</_>
        <_>
          6 7 3 2 2.</_>
        <_>
          9 9 3 2 2.</_></rects>
      <tilted>0</tilted></_>
    <_>
      <rects>
        <_>
          7 2 4 4 -1.</_>
        <_>
          9 2 2 4 2.</_></rects>
      <tilted>0</tilted></_>
    <_>
      <rects>
        <_>
          9 1 2 8 -1.</_>
        <_>
          9 1 1 4 2.</_>
        <_>
          10 5 1 4 2.</_></rects>
      <tilted>0</tilted></_></features></cascade>
</opencv_storage>
